/* Auto-generated header: fc weights + biases */
#ifndef FC_WEIGHTS_H
#define FC_WEIGHTS_H

// fc1.weight shape=(64,10)
static const float fc1_weight[64][10] = {
    { 1.82669691e-03f, 6.24248665e-03f, -2.48766631e-01f, 2.19022766e-01f, 1.76448494e-01f, -3.74854296e-01f, 1.13763523e+00f, -1.48496628e+00f, -2.32698846e+00f, 1.76809382e+00f },
    { 3.40790153e-02f, -9.62162167e-02f, 1.31581396e-01f, -2.79841244e-01f, 2.11348087e-01f, -2.07079351e-02f, 5.62053025e-02f, 1.74860567e-01f, 1.99202597e-02f, -1.05610088e-01f },
    { -2.39568591e-01f, -3.24071050e-02f, -2.12707818e-02f, -1.55447334e-01f, -4.27632332e-02f, 7.82755017e-02f, -1.63410127e-01f, 2.49330789e-01f, -1.99769273e-01f, -3.13876271e-02f },
    { -3.91432866e-02f, -2.55224288e-01f, -7.06219599e-02f, 4.15989012e-02f, 6.71741664e-01f, -2.96479817e-02f, -9.40999627e-01f, 2.99907827e+00f, -1.43414688e+00f, 3.18182087e+00f },
    { 1.64261997e-01f, -2.99618930e-01f, -1.30657256e-02f, -1.11346245e-02f, 1.86485738e-01f, -9.77695286e-02f, -5.54223955e-02f, -7.88617134e-03f, 8.95445943e-02f, -1.57605425e-01f },
    { 1.10365160e-01f, 4.68128920e-02f, -3.70432347e-01f, 6.38256446e-02f, -3.24026763e-01f, 1.58653826e-01f, 2.42404610e-01f, 1.30322194e+00f, 1.15428674e+00f, 2.47987103e+00f },
    { 3.08172226e-01f, -8.60742852e-02f, 5.58823906e-02f, 1.72155976e-01f, 6.49271533e-02f, -1.66723981e-01f, -4.66039270e-01f, -1.55341101e+00f, -6.31614506e-01f, -4.39447492e-01f },
    { -8.75875503e-02f, 1.18846625e-01f, 2.30421364e-01f, 1.96752474e-01f, 4.96161371e-01f, -4.46470857e-01f, 3.31630766e-01f, -1.44383848e+00f, -1.93572152e+00f, -7.45536899e-03f },
    { -1.73950195e-03f, -9.37976688e-02f, 4.61245179e-02f, -2.98569500e-01f, -2.70055890e-01f, 1.87080890e-01f, -1.71810776e-01f, 5.23340106e-02f, 2.30449349e-01f, 4.97943461e-02f },
    { -1.83419958e-01f, 6.64189160e-02f, 5.38092256e-02f, -2.00981542e-01f, 1.87475532e-01f, -2.91579515e-01f, -3.09716225e-01f, 1.70651317e-01f, -1.14909768e-01f, 7.21132755e-02f },
    { 1.60383042e-02f, 3.05413663e-01f, -2.07469180e-01f, 1.96485832e-01f, 2.91329235e-01f, -2.20526963e-01f, 4.14701968e-01f, -1.31743968e+00f, 1.19761057e-01f, 1.06343460e+00f },
    { -1.68905690e-01f, 2.12866053e-01f, -5.55835143e-02f, 2.05347940e-01f, -5.66177130e-01f, 5.39215729e-02f, -6.30056858e-01f, 1.22665787e+00f, 1.57935619e+00f, -3.09223652e+00f },
    { -3.84047925e-02f, 1.12828165e-01f, -1.41362116e-01f, -2.49021038e-01f, -4.43578959e-02f, 2.01579660e-01f, -8.02503675e-02f, 9.37716663e-02f, 1.96805507e-01f, -2.17644870e-01f },
    { 2.10308731e-01f, 3.49457115e-01f, 1.98386833e-01f, 7.36385062e-02f, -6.87659860e-01f, -2.32324004e-01f, -6.64702713e-01f, 1.44641125e+00f, 1.92478701e-01f, -2.39549851e+00f },
    { -2.29513809e-01f, -2.72946924e-01f, -1.49809077e-01f, 1.79384142e-01f, 4.27874833e-01f, 4.60987359e-01f, -3.19798857e-01f, 8.76586795e-01f, 1.28644335e+00f, -1.01470470e+00f },
    { 5.05911037e-02f, 3.65832597e-01f, 1.18198745e-01f, 1.91143677e-01f, -8.96820799e-02f, -2.20092371e-01f, -1.00148189e+00f, -8.99246275e-01f, 1.27606595e+00f, -1.52136374e+00f },
    { 2.96967998e-02f, -3.26321125e-01f, -1.62794113e-01f, 2.58302301e-01f, -4.39133048e-02f, 8.35724592e-01f, 1.88237103e-03f, 1.29897904e+00f, 2.42101288e+00f, 1.19592023e+00f },
    { -8.07492882e-02f, 8.41169059e-02f, 1.90318197e-01f, -1.02962747e-01f, -1.76357970e-01f, 8.28092396e-02f, 1.24943912e-01f, -4.08323109e-02f, 2.11996168e-01f, -2.47435570e-01f },
    { -4.34923694e-02f, -1.25764571e-02f, -2.99737081e-02f, 2.99361318e-01f, -5.78642547e-01f, -1.02502331e-01f, 5.46381593e-01f, 1.40483308e+00f, -1.52583051e+00f, -1.77494347e+00f },
    { -2.38751471e-01f, 1.98119670e-01f, 2.24789590e-01f, -1.97772026e-01f, -2.92455405e-01f, -1.49671465e-01f, 2.36946315e-01f, 2.62483090e-01f, -2.82874376e-01f, -2.36003160e-01f },
    { -2.55290747e-01f, 1.14926964e-01f, 2.29416519e-01f, -2.11410373e-01f, 2.59693056e-01f, -1.52801499e-01f, -2.17270285e-01f, 2.07757324e-01f, -2.39607811e-01f, -1.98355407e-01f },
    { 1.22690409e-01f, 1.19782388e-02f, 2.05282718e-01f, -6.67488128e-02f, -1.12842336e-01f, -1.97197676e-01f, -1.80538490e-01f, -9.57867652e-02f, -2.14448333e-01f, 1.61874563e-01f },
    { 2.32891105e-02f, 2.38589004e-01f, 1.25724614e-01f, 9.96496975e-02f, 2.46288493e-01f, 4.31263775e-01f, -1.30082488e-01f, 9.30428267e-01f, 2.45476341e+00f, 8.38616669e-01f },
    { 2.74601191e-01f, 2.06037804e-01f, -1.76826447e-01f, 2.65910417e-01f, -7.75618732e-01f, -1.88870937e-01f, 7.87202954e-01f, -1.29287994e+00f, -2.00279045e+00f, 1.13864696e+00f },
    { -8.36952999e-02f, 2.82519221e-01f, 1.69882774e-01f, 2.22485423e-01f, 1.75129607e-01f, -1.41643388e-02f, -6.61989391e-01f, 9.42670345e-01f, 1.37482822e+00f, -2.41372752e+00f },
    { -1.34715796e-01f, 2.00143516e-01f, 3.12289715e-01f, 1.87686324e-01f, -3.32948178e-01f, -1.12681679e-01f, -1.65704817e-01f, 5.45996487e-01f, 2.27368295e-01f, -1.33595133e+00f },
    { 1.98706761e-02f, 6.96020201e-02f, 2.53649414e-01f, 1.81109250e-01f, 1.96285382e-01f, 2.10591376e-01f, 3.45581412e-01f, -1.01834691e+00f, 3.82095098e-01f, 1.50658894e+00f },
    { 2.19776899e-01f, -1.29450336e-01f, 2.27950960e-01f, -1.06377110e-01f, -2.07682252e-02f, 1.43759221e-01f, 2.57707924e-01f, 6.43323660e-02f, 1.30054951e-01f, -1.54029116e-01f },
    { -2.34475136e-02f, 1.21230483e-01f, -2.12288946e-01f, -1.75122514e-01f, 1.09502137e-01f, 4.33334708e-02f, 8.84584188e-02f, 1.72629952e-01f, 1.54980749e-01f, 1.11607730e-01f },
    { 2.97535688e-01f, 8.62938836e-02f, -6.60399720e-02f, 1.46598130e-01f, 5.42975187e-01f, 6.34633541e-01f, -1.42633998e+00f, 1.13661456e+00f, 2.09374428e+00f, -2.51572919e+00f },
    { 2.87876755e-01f, -3.08352768e-01f, 7.96907842e-02f, -2.37213016e-01f, -1.02326944e-01f, 2.35363156e-01f, -2.87583232e-01f, 7.15790093e-02f, -1.72514617e-02f, -1.40057564e-01f },
    { -3.29665542e-01f, -3.07163328e-01f, -1.77320138e-01f, 1.70841888e-01f, 1.19135052e-01f, 6.99893117e-01f, -1.29616988e+00f, 1.18266952e+00f, 1.68791044e+00f, -2.27934718e+00f },
    { 1.96646780e-01f, 8.10291767e-02f, 2.93748081e-02f, -2.30330124e-01f, -2.48003587e-01f, 4.80538309e-02f, 3.11176568e-01f, -2.79202044e-01f, 1.38583511e-01f, 2.57494181e-01f },
    { -1.38147771e-02f, -3.22225392e-02f, -7.55471289e-02f, -1.36293933e-01f, -1.69108257e-01f, 1.90716892e-01f, -8.10057074e-02f, -2.44898736e-01f, 2.83752292e-01f, 2.48995215e-01f },
    { 8.21722075e-02f, -2.69457269e-02f, -2.09248021e-01f, 9.84958708e-02f, 2.22066924e-01f, -3.44417900e-01f, 1.56619087e-01f, -1.07131088e+00f, -4.83249098e-01f, 1.35885024e+00f },
    { -1.23342536e-01f, -2.30492890e-01f, 1.59291685e-01f, 1.09827228e-01f, -1.90615043e-01f, 7.52307355e-01f, 3.05916071e-01f, 1.52773237e+00f, 1.51395524e+00f, 1.74039447e+00f },
    { 6.27270900e-03f, 4.49785650e-01f, 2.10526749e-01f, 2.02424582e-02f, -5.62827229e-01f, -4.98763770e-01f, -7.59010762e-02f, 6.82478547e-01f, -1.16837752e+00f, -3.00624418e+00f },
    { -2.58180767e-01f, -1.68479130e-01f, -1.50537103e-01f, -2.15114102e-01f, 3.09401363e-01f, -2.03751683e-01f, -1.65595889e-01f, -7.01093823e-02f, -2.85506725e-01f, 2.84578413e-01f },
    { -2.82226950e-01f, -5.56145012e-02f, 2.98749596e-01f, -1.69050619e-01f, 1.64019793e-01f, 2.78682798e-01f, 2.87196428e-01f, 1.47065461e-01f, -2.43451387e-01f, 2.43396550e-01f },
    { 1.53581113e-01f, -2.40713656e-01f, -1.20283753e-01f, -8.70441347e-02f, -1.06373757e-01f, -2.06606686e-02f, -1.22415304e-01f, 2.94516087e-02f, 6.36142194e-02f, -2.78498530e-02f },
    { 2.10577816e-01f, -1.18014857e-01f, -2.40391076e-01f, -5.92261553e-04f, -1.69600964e-01f, -3.10008496e-01f, 2.29314357e-01f, 8.45007598e-02f, 2.35007912e-01f, -2.66065687e-01f },
    { -1.87441245e-01f, -3.13196123e-01f, -6.76377863e-02f, -4.47144508e-02f, -2.32088357e-01f, -1.53864488e-01f, 2.81164557e-01f, 2.08014876e-01f, 2.63251334e-01f, -1.13086477e-01f },
    { -3.64583790e-01f, 5.79810999e-02f, 9.26460475e-02f, 2.12227419e-01f, -2.36100525e-01f, 5.15415967e-01f, 5.05230367e-01f, 6.04446650e-01f, -1.43409610e+00f, 2.51660919e+00f },
    { -5.97864129e-02f, -7.80643597e-02f, 2.46396307e-02f, 1.01905823e-01f, -1.88011453e-01f, 2.79686451e-01f, 2.88957268e-01f, 1.15265906e+00f, -1.60629773e+00f, -2.30966538e-01f },
    { -2.90792942e-01f, 2.87333459e-01f, 2.83301741e-01f, -2.40847439e-01f, -1.99695796e-01f, -2.47560456e-01f, -9.73613560e-02f, -1.19517669e-01f, 1.83363765e-01f, -2.02346221e-01f },
    { -1.26989320e-01f, 2.53792852e-01f, -2.11108759e-01f, -1.57713164e-02f, -9.01484936e-02f, 1.51873052e-01f, 5.94890177e-01f, -1.33863389e+00f, 1.98685661e-01f, 4.25191689e+00f },
    { -1.08091183e-01f, 7.65311420e-02f, 5.46509735e-02f, 2.48866647e-01f, 3.22667360e-01f, -6.61477387e-01f, 1.23578441e+00f, -1.56942713e+00f, -2.11214423e+00f, 2.26757669e+00f },
    { -1.93561837e-01f, -2.61647373e-01f, 1.77410785e-02f, 1.84559956e-01f, -3.47421497e-01f, -2.29897007e-01f, 4.88614053e-01f, -1.94868535e-01f, -2.18875861e+00f, 1.39579809e+00f },
    { 1.85955822e-01f, 1.37307465e-01f, -2.41322726e-01f, 1.06764480e-01f, 2.66072806e-02f, 1.26312464e-01f, -1.35087836e+00f, 4.84843671e-01f, 1.86733794e+00f, -2.60192871e+00f },
    { -1.72546625e-01f, -2.49662697e-02f, 2.00706422e-02f, -2.74733573e-01f, -5.16770482e-02f, -1.10494494e-02f, -2.90655494e-01f, -1.66358501e-01f, 1.38547659e-01f, -1.71762154e-01f },
    { 1.32605359e-01f, 2.56048709e-01f, -1.03048712e-01f, -1.07965777e-02f, 5.47791660e-01f, 3.46621841e-01f, -1.19492257e+00f, 1.66782296e+00f, 2.91435957e+00f, -3.67218471e+00f },
    { 2.82907337e-01f, 1.37818217e-01f, -6.51614964e-02f, -2.15709910e-01f, 9.36231017e-02f, 5.94671369e-02f, 1.04046315e-01f, 1.31661534e-01f, 2.56799489e-01f, 2.75375813e-01f },
    { 6.11454785e-01f, 5.06358445e-01f, 1.64046362e-01f, -1.53036863e-01f, -8.30927014e-01f, 1.37989855e+00f, 1.30106008e+00f, -2.67798066e-01f, 9.45379317e-01f, 1.24105251e+00f },
    { -4.25955094e-02f, -2.10840449e-01f, -2.79948324e-01f, 1.21269628e-01f, -2.56330192e-01f, 3.78922135e-01f, 9.49645564e-02f, 9.74207819e-01f, 3.67064625e-01f, -1.35358199e-01f },
    { 1.53077602e-01f, 8.58691335e-02f, -2.81021416e-01f, -2.32201219e-01f, -2.29365289e-01f, 1.94748908e-01f, 1.58712000e-01f, 8.45280886e-02f, 1.92964464e-01f, -1.13268510e-01f },
    { -1.85535043e-01f, -2.16706917e-01f, 2.04470158e-01f, 5.87858856e-02f, 5.91882944e-01f, 5.22016168e-01f, -6.17024541e-01f, 7.79870272e-01f, 3.36090326e+00f, 3.09150410e+00f },
    { -3.31463277e-01f, -3.23341250e-01f, 2.39700019e-01f, 2.48852342e-01f, -1.16137221e-01f, 2.64803141e-01f, 5.28692186e-01f, -9.86942410e-01f, -1.64152181e+00f, 2.23537421e+00f },
    { -4.53343615e-02f, 7.94168375e-03f, 2.31652603e-01f, 2.63294041e-01f, 2.25496329e-02f, 1.00651592e-01f, -3.68496060e-01f, 5.95527232e-01f, 6.41658723e-01f, -1.55883372e+00f },
    { 9.89078283e-02f, 8.23527277e-02f, -1.31344959e-01f, -2.96569198e-01f, 3.11798006e-01f, 2.18470305e-01f, 3.01180094e-01f, 1.22662961e-01f, 3.09877664e-01f, 1.82711959e-01f },
    { 1.97204322e-01f, 1.04699492e-01f, 4.12139297e-03f, -2.97206312e-01f, -2.32590601e-01f, 2.01139838e-01f, -2.83525735e-01f, -2.39113569e-02f, -1.37393877e-01f, -2.04695582e-01f },
    { 2.89516181e-01f, 5.08238673e-02f, -1.47208542e-01f, -3.13759983e-01f, -1.72359079e-01f, -2.43016049e-01f, 1.47549957e-01f, 8.03439021e-02f, 4.22463417e-02f, -5.48332334e-02f },
    { -2.07118303e-01f, -2.07364634e-01f, -2.76504427e-01f, 2.16333479e-01f, 3.75229299e-01f, -2.20472947e-01f, 5.94770610e-01f, -1.63108790e+00f, -1.39349008e+00f, 2.63134050e+00f },
    { 2.56104141e-01f, -1.20336302e-01f, 2.88327754e-01f, 8.71249437e-02f, 7.11680591e-01f, 1.68301508e-01f, -1.29146385e+00f, -1.58473563e+00f, 2.91795850e+00f, 6.20224059e-01f },
    { 2.08634406e-01f, -4.35802042e-02f, 2.65947580e-02f, -2.81241894e-01f, -1.70581013e-01f, 1.94504946e-01f, -8.41022283e-02f, -5.62461615e-02f, 2.77997762e-01f, 6.94647133e-02f },
};

// fc1.bias shape=(64,)
static const float fc1_bias[64] = { 3.46634164e-02f, -5.43531477e-02f, -2.63702184e-01f, 1.03462167e-01f, -1.35663867e-01f, 1.70914829e-01f, 3.12445283e-01f, 2.23611400e-01f, 1.76650345e-01f, -2.94420749e-01f, 1.06290169e-01f, -1.11795299e-01f, 2.22998351e-01f, 2.58266926e-01f, -3.23985845e-01f, 3.60882014e-01f, -1.11204475e-01f, -1.04151726e-01f, 8.44535604e-02f, 2.50070244e-01f, 8.13168585e-02f, -7.40314722e-02f, -2.15758413e-01f, 2.13138998e-01f, 2.09000587e-01f, -6.27324432e-02f, 2.78316975e-01f, -2.12950408e-02f, -1.80451065e-01f, -1.52785003e-01f, -2.47157842e-01f, 5.40098827e-03f, 8.80846381e-03f, -2.69894004e-01f, 7.62380362e-02f, -3.88318747e-01f, 2.34325126e-01f, -1.80180594e-01f, 2.23960549e-01f, -1.00427642e-01f, 6.85400069e-02f, -2.90907919e-01f, 1.79519400e-01f, -2.80496240e-01f, 1.21485472e-01f, -1.50846466e-01f, -4.56468388e-02f, -3.90310679e-03f, -1.23963326e-01f, 1.66615248e-02f, -2.91974749e-02f, 4.12340462e-02f, 5.35378456e-01f, 2.70211011e-01f, -1.77990377e-01f, -4.90794070e-02f, -6.76140338e-02f, 3.29242587e-01f, 9.01589394e-02f, 2.72833377e-01f, 2.02000290e-01f, 4.83483868e-03f, 8.63555148e-02f, -2.35757321e-01f };

// fc2.weight shape=(32,64)
static const float fc2_weight[32][64] = {
    { 8.98668766e-02f, 3.19814682e-02f, 1.10544890e-01f, -8.83450061e-02f, -5.60960174e-02f, -1.82509273e-02f, 5.37477434e-03f, 7.45669603e-02f, -7.82168061e-02f, -3.26173753e-02f, -5.81597537e-02f, 1.29116327e-02f, 6.61600083e-02f, -3.78875434e-02f, -3.28885764e-02f, 4.87131029e-02f, -1.16306946e-01f, 6.39504790e-02f, 7.35737532e-02f, -2.59059966e-02f, -1.07907981e-01f, 6.80323839e-02f, -8.03762674e-02f, -7.59781450e-02f, -1.13367572e-01f, 2.07471251e-02f, 7.96449631e-02f, -1.70421898e-02f, 6.89721406e-02f, -4.48574573e-02f, 7.54759610e-02f, -9.10743326e-02f, 4.91448790e-02f, -7.25119412e-02f, 6.92240596e-02f, 2.60189623e-02f, -6.03905171e-02f, -1.20637655e-01f, 8.87439996e-02f, -7.94308484e-02f, -8.84305537e-02f, -4.01030332e-02f, -1.17111102e-01f, 5.32752573e-02f, -4.61769104e-02f, -5.01811355e-02f, -6.41025007e-02f, -1.16134420e-01f, -9.58882421e-02f, -9.66338962e-02f, 1.05748177e-01f, -5.51529229e-02f, 9.34667885e-02f, -4.93951142e-02f, 4.93414849e-02f, -1.00006849e-01f, -7.50909895e-02f, -5.33662736e-02f, 1.24623924e-02f, 3.09061110e-02f, -5.24435937e-02f, 1.13177165e-01f, -6.51678741e-02f, 5.99841774e-03f },
    { -8.57438147e-02f, -5.43811023e-02f, -3.04131210e-03f, 6.41146302e-02f, -1.04192644e-01f, 1.22227728e-01f, 1.09970123e-02f, 4.09783423e-02f, -7.62160122e-02f, 6.04405999e-03f, 7.33363479e-02f, 1.07600003e-01f, 7.33332932e-02f, 2.48911977e-02f, -1.14452496e-01f, -7.15236217e-02f, -1.64352804e-02f, -8.33559185e-02f, -9.82262492e-02f, -1.19670972e-01f, -9.65884924e-02f, -5.89418709e-02f, -3.28071862e-02f, -6.08582944e-02f, -3.06602716e-02f, -4.31675762e-02f, -8.35238993e-02f, 2.26856619e-02f, -1.65185034e-02f, 5.02873808e-02f, -4.99024242e-02f, 5.19070625e-02f, 3.53566259e-02f, 1.19895980e-01f, -2.61830986e-02f, -8.72002542e-02f, -5.40982783e-02f, -1.42587870e-02f, -3.44033539e-03f, 5.76763451e-02f, -2.42414176e-02f, 5.90986162e-02f, -3.82198542e-02f, -7.13053644e-02f, -1.00409687e-01f, -6.04227334e-02f, 6.02249801e-03f, 7.75148273e-02f, 2.29910463e-02f, -6.66675270e-02f, -8.95978659e-02f, -9.22190398e-02f, 8.03956091e-02f, 1.22373968e-01f, 6.21229410e-03f, -9.59263295e-02f, 9.52034146e-02f, -4.31966782e-02f, 2.73534656e-03f, -2.38498747e-02f, -2.91850120e-02f, -8.37362856e-02f, 9.33701098e-02f, 6.16066754e-02f },
    { 8.50717127e-02f, -9.90247428e-02f, -4.90282476e-02f, 7.09770203e-01f, -9.39913839e-02f, -4.51615686e-03f, -1.24136314e-01f, -1.48590520e-01f, -2.68480927e-02f, -4.82959598e-02f, 3.30385081e-02f, -2.55866908e-02f, 1.10135972e-02f, -2.10659839e-02f, 9.92481783e-02f, -1.48838358e-02f, 1.17287159e-01f, -6.52829111e-02f, 6.24025762e-02f, -9.80980694e-03f, 4.81445044e-02f, -8.07614923e-02f, -5.63637950e-02f, -3.72935757e-02f, -2.23758258e-02f, -1.29656121e-01f, -1.58356596e-02f, 9.70730186e-02f, 1.24821648e-01f, 5.38041368e-02f, 1.10567585e-01f, 4.35619690e-02f, 7.97472894e-02f, -5.35247177e-02f, 9.93654132e-02f, -4.15431000e-02f, -2.52439171e-01f, 9.43358243e-03f, -7.41290003e-02f, 2.22607553e-02f, 8.77039135e-03f, 6.13109767e-02f, 5.90739734e-02f, -1.32649429e-02f, 8.07867795e-02f, 1.37658328e-01f, 6.79162219e-02f, -5.87211736e-03f, 1.56195536e-02f, -7.75954276e-02f, 1.08175114e-01f, -9.23762619e-02f, -4.87141341e-01f, 4.06341553e-02f, -1.24963567e-01f, 2.00772047e-01f, 3.08085643e-02f, -4.81498661e-03f, 4.46729064e-02f, -6.27198815e-03f, -9.54973698e-02f, 7.70653188e-02f, 4.10721228e-02f, 4.68327701e-02f },
    { 7.66177624e-02f, 7.25426674e-02f, 5.55226505e-02f, -5.94279766e-02f, -1.06892556e-01f, -1.06205508e-01f, 1.44321322e-02f, -8.15648884e-02f, 3.97613645e-03f, -6.57559186e-02f, 1.18116379e-01f, -1.25837773e-02f, -4.53031361e-02f, 7.39782155e-02f, -3.67189050e-02f, -6.00719154e-02f, -1.27355307e-02f, 5.51194102e-02f, 6.31483048e-02f, -2.14907229e-02f, -1.06286839e-01f, 2.37231702e-02f, 7.63182640e-02f, -8.23240280e-02f, 8.81129503e-03f, 1.09773964e-01f, -6.08307421e-02f, 4.48495448e-02f, -5.66279590e-02f, -6.94750994e-02f, -7.11893290e-02f, 3.51632684e-02f, 4.12147641e-02f, -9.59210098e-03f, 5.46264350e-02f, -9.95127112e-02f, -2.17149258e-02f, 3.77403349e-02f, 7.47054815e-04f, -2.09732950e-02f, -1.77207142e-02f, 5.61061949e-02f, -1.03023618e-01f, -3.14488709e-02f, -5.90578914e-02f, -1.07371971e-01f, -6.41794801e-02f, 5.71340024e-02f, 7.63167739e-02f, -2.21545994e-02f, -1.15811497e-01f, 5.91074973e-02f, -7.64192641e-02f, 5.22542000e-02f, 7.36668706e-03f, -1.15617320e-01f, 6.41762614e-02f, -1.02418199e-01f, -6.75714910e-02f, -7.95357972e-02f, 6.83989972e-02f, -1.57235116e-02f, -1.21356100e-02f, 1.33399069e-02f },
    { 1.41945183e-02f, 1.07513651e-01f, -7.92671591e-02f, 1.14676356e-03f, -8.74738395e-02f, -7.30868578e-02f, -9.60656554e-02f, -1.15426436e-01f, 9.51226205e-02f, 8.58507752e-02f, -9.38089341e-02f, -4.20690626e-02f, 1.00653440e-01f, 1.07094496e-02f, 5.55538684e-02f, 2.92754769e-02f, -8.99453014e-02f, 2.23615766e-02f, 6.72162473e-02f, -8.75259936e-03f, 8.82709771e-02f, 5.32940030e-03f, -8.71771127e-02f, 8.82776082e-03f, -1.12587601e-01f, 6.20993674e-02f, -5.95787764e-02f, -4.74686027e-02f, -5.78251481e-02f, -1.34832710e-02f, 8.18079710e-02f, -1.20008409e-01f, -5.11222482e-02f, 8.35349411e-02f, -2.44352221e-02f, -7.16130435e-03f, -1.01055443e-01f, -1.20034501e-01f, -7.93951303e-02f, 1.09897301e-01f, -6.84837997e-03f, -7.65898824e-03f, 3.25298160e-02f, 4.72429395e-02f, -5.22573143e-02f, -8.61236602e-02f, 3.39309871e-03f, 1.03535399e-01f, 1.11038163e-01f, 5.08883297e-02f, 1.70724243e-02f, 7.68318921e-02f, -8.87359679e-02f, -5.84761649e-02f, -7.16312230e-02f, 7.83051401e-02f, 1.06050774e-01f, -7.87520409e-03f, 6.49203807e-02f, -1.14564046e-01f, -7.05107301e-02f, -7.93714225e-02f, 6.22885227e-02f, 1.16079897e-02f },
    { -3.24507058e-02f, -9.84522402e-02f, 1.14814982e-01f, 7.94555545e-02f, -1.09122619e-01f, -1.24102205e-01f, 6.86614960e-02f, 9.39587206e-02f, -1.04324088e-01f, 1.38806999e-02f, 1.81879103e-02f, -5.42320162e-02f, -1.02867246e-01f, -6.49828613e-02f, 1.47975385e-02f, -7.52707571e-02f, -7.17571229e-02f, -6.74997568e-02f, 3.47405672e-04f, 5.67038357e-02f, -1.17296413e-01f, -4.20689434e-02f, -6.98216259e-02f, -5.59716970e-02f, -6.20444715e-02f, -8.48317891e-02f, 6.22760057e-02f, -6.59972429e-04f, 3.19723636e-02f, -3.63364220e-02f, 2.36811787e-02f, -4.56633866e-02f, 7.55974650e-03f, -7.18365163e-02f, -5.24598509e-02f, 2.48767883e-02f, 6.54509664e-02f, -5.99923581e-02f, -4.80686575e-02f, -1.09145939e-02f, 1.15336180e-02f, 9.19430107e-02f, -9.19673890e-02f, 2.27271616e-02f, 1.76353604e-02f, 7.26708472e-02f, -1.35962814e-02f, -2.20615864e-02f, -3.36823165e-02f, -1.24712303e-01f, 7.80095160e-03f, 9.36849266e-02f, -6.57220781e-02f, -6.83139116e-02f, 7.65671432e-02f, 1.23433784e-01f, -5.90694249e-02f, -5.71662337e-02f, -1.21605471e-01f, 1.23962328e-01f, -4.12389338e-02f, 9.82882977e-02f, 4.83269393e-02f, -1.19254768e-01f },
    { 2.06028987e-02f, 8.86198580e-02f, 4.40143198e-02f, 1.06917953e+00f, -9.63490605e-02f, 4.31517325e-02f, -7.83583075e-02f, 4.42894027e-02f, -4.14017588e-02f, 9.00970250e-02f, -3.57561372e-02f, -2.71654017e-02f, -9.89883244e-02f, 3.27315256e-02f, -6.81175143e-02f, -6.66460767e-02f, 1.19351238e-01f, 5.49988449e-03f, 4.23068739e-02f, -1.18248478e-01f, -8.89455527e-02f, -7.53374994e-02f, 7.49269268e-04f, 1.34297758e-01f, 2.19017640e-02f, -1.80298556e-02f, 1.06364891e-01f, 2.50617117e-02f, -1.01014763e-01f, -7.76381716e-02f, 1.16096824e-01f, -1.22283533e-01f, -5.14284074e-02f, -1.06593832e-01f, 4.50797528e-02f, -1.03230402e-02f, -1.11934945e-01f, 1.01136848e-01f, 3.48809361e-02f, 4.77932990e-02f, 6.30223453e-02f, -8.23024213e-02f, 5.92640787e-02f, 1.26050681e-01f, 7.49580115e-02f, 1.11078119e+00f, 9.05072913e-02f, 6.15046844e-02f, -1.16503529e-01f, 9.16763246e-02f, -2.79326588e-01f, 6.64114356e-02f, 4.44073558e-01f, 9.41216201e-02f, 9.27888155e-02f, -9.20984223e-02f, 1.06616821e-02f, -9.56525505e-02f, 5.66955358e-02f, 1.70651525e-02f, -7.42909163e-02f, 5.25460988e-02f, -1.27002284e-01f, 1.61024183e-02f },
    { 5.85354567e-02f, 1.07408255e-01f, -6.61554784e-02f, -1.21109456e-01f, 3.42415571e-02f, 1.93656981e-02f, 8.21664184e-02f, 5.74150681e-03f, 3.08882892e-02f, -5.69101423e-02f, 1.39127374e-02f, -8.39184523e-02f, 7.50058442e-02f, -1.15606114e-01f, -4.53614742e-02f, 2.97767818e-02f, -1.01805419e-01f, 1.98243111e-02f, -1.12249598e-01f, -1.72960907e-02f, -6.88742250e-02f, -6.08993471e-02f, -5.20378649e-02f, -5.95746934e-03f, 9.91381854e-02f, 2.47578323e-02f, -9.59983319e-02f, 3.90563607e-02f, -5.89520335e-02f, -7.26246536e-02f, 3.47493589e-02f, -1.70596093e-02f, 4.32504863e-02f, 5.83644509e-02f, 6.41512722e-02f, 7.18547404e-03f, 1.17940113e-01f, -3.88009548e-02f, -1.16384327e-01f, 2.07361132e-02f, 6.92054182e-02f, 6.72852993e-03f, -1.74491853e-02f, 8.09420645e-02f, -1.13446385e-01f, 8.25685710e-02f, -1.03730097e-01f, -1.10411659e-01f, -3.50818038e-04f, -1.06489703e-01f, -5.05551696e-04f, 8.97248834e-02f, -5.20177484e-02f, 6.95971996e-02f, -4.89286333e-02f, 3.75839472e-02f, 1.80275440e-02f, -1.16787896e-01f, -8.94086063e-02f, 1.15095153e-01f, 1.12579614e-02f, 1.05505764e-01f, -7.56810904e-02f, 4.65196222e-02f },
    { -1.95017606e-02f, 8.74627978e-02f, 5.72381616e-02f, -5.96479326e-02f, 9.86586511e-02f, -1.25119090e-02f, 8.95547867e-02f, 4.03268784e-02f, -8.83125216e-02f, -3.54590863e-02f, 9.84965265e-03f, -7.80617744e-02f, -5.91116399e-02f, -1.96467787e-02f, -8.19929540e-02f, -1.21059552e-01f, 6.39273375e-02f, -9.06605721e-02f, 8.18699598e-04f, -6.37753308e-03f, -7.35680610e-02f, 5.10740578e-02f, 1.02816656e-01f, -1.18601933e-01f, -8.03664327e-03f, 8.39800984e-02f, -6.34799302e-02f, 1.15127116e-01f, -6.83358312e-03f, 8.71745646e-02f, -4.41000760e-02f, -6.53752834e-02f, 4.24653292e-02f, -1.22815892e-01f, 1.95656419e-02f, -9.75256562e-02f, -1.02164969e-01f, 5.87704778e-03f, 1.18519664e-01f, -1.50869489e-02f, -8.64254385e-02f, 9.94315743e-02f, -1.03528842e-01f, 5.07444143e-04f, 6.52168989e-02f, 1.23785391e-01f, 3.83497775e-02f, 9.43393558e-02f, -3.47006023e-02f, 4.02510166e-02f, -5.08774668e-02f, 4.95301932e-02f, 2.56920308e-02f, 6.09362125e-02f, 1.35725886e-02f, -1.21976241e-01f, -1.05245367e-01f, -8.48286301e-02f, 3.36395949e-02f, -7.51000345e-02f, -9.11569446e-02f, 1.21634156e-02f, 3.70395482e-02f, 4.37793136e-02f },
    { 9.05299410e-02f, 4.22219634e-02f, 4.47188765e-02f, -3.94777283e-02f, -5.11437654e-02f, -8.46185461e-02f, -3.21242884e-02f, -5.94258383e-02f, 1.17595345e-01f, 4.35711890e-02f, 5.48613630e-02f, 7.79729187e-02f, -6.53992295e-02f, 5.89777380e-02f, 6.14095926e-02f, -9.95607749e-02f, -7.29316026e-02f, 3.35444361e-02f, -6.96574152e-02f, 1.08241752e-01f, 1.12304270e-01f, -8.04640055e-02f, 6.93066344e-02f, 2.31792917e-03f, -8.20368454e-02f, 1.52918901e-02f, -7.64816925e-02f, -4.73081619e-02f, 5.64443320e-02f, 4.80102822e-02f, -1.03518933e-01f, 3.71831283e-02f, 6.74118698e-02f, 3.37893218e-02f, -2.08390560e-02f, 4.94776927e-02f, -2.43691541e-02f, 9.63918716e-02f, -9.83312577e-02f, -3.61166596e-02f, 1.14819273e-01f, 1.16702214e-01f, 3.13521922e-02f, -1.10226847e-01f, 4.52422202e-02f, -8.03398043e-02f, -5.42351864e-02f, -1.04929395e-01f, 7.61725567e-03f, 3.95826846e-02f, 2.37273909e-02f, -4.22872007e-02f, 7.56884133e-03f, -1.22680655e-02f, 5.61333299e-02f, -9.64492112e-02f, 9.62107256e-02f, 2.85610650e-02f, -2.92057991e-02f, 4.30880785e-02f, 9.45530236e-02f, 1.55043299e-03f, -4.22466062e-02f, 6.40989989e-02f },
    { -1.15386844e-01f, 2.26049721e-02f, 7.40635395e-02f, -4.89945859e-01f, 6.68295622e-02f, 6.25675097e-02f, 1.07366242e-01f, -5.55664636e-02f, 5.01792729e-02f, -9.61558670e-02f, -1.34982526e-01f, -2.42576972e-02f, 6.44941628e-02f, 6.53117476e-03f, 9.30410624e-02f, -7.89598003e-02f, -2.82639917e-02f, -9.51708406e-02f, 8.26285258e-02f, 2.15900987e-02f, -1.65344775e-03f, -6.68227971e-02f, 1.00443967e-01f, -1.68509386e-03f, 6.89023733e-02f, 1.12417206e-01f, -1.46516666e-01f, 7.48800784e-02f, -5.26193380e-02f, 4.29703929e-02f, 5.93129694e-02f, 8.71507227e-02f, 8.85938257e-02f, 7.86833465e-03f, -7.87006617e-02f, 1.14808977e-01f, 2.18792558e-01f, -8.55645090e-02f, -6.78047985e-02f, 4.47414070e-02f, 5.53020984e-02f, -4.28523123e-02f, 1.05880715e-01f, 2.20630597e-02f, -3.46899927e-02f, -1.07280219e+00f, 1.21704973e-02f, 9.20918956e-02f, -8.26883838e-02f, 2.89840847e-02f, 6.91237748e-02f, -1.50866061e-02f, -1.58220172e-01f, -1.29655033e-01f, 1.42364353e-02f, 4.34772670e-02f, -3.71890701e-02f, 5.97993061e-02f, -1.02852017e-01f, 3.27569693e-02f, 1.55068934e-03f, 2.81910505e-02f, -7.51646236e-02f, 7.54983574e-02f },
    { -9.90890712e-02f, -5.46077937e-02f, 7.22688437e-02f, 1.58907580e+00f, -5.16593605e-02f, 1.79691851e-01f, -1.01252273e-02f, -4.46413606e-02f, -3.46105844e-02f, 2.05654502e-02f, 5.44641055e-02f, 2.89524365e-02f, 9.98723805e-02f, -2.35824823e-01f, -7.58001730e-02f, 1.02468971e-02f, 4.77724634e-02f, -1.23378783e-02f, -8.44177827e-02f, -2.60359645e-02f, 3.74500155e-02f, 1.19069323e-01f, 4.92842533e-02f, -9.56603675e-04f, -5.95466085e-02f, -9.80159715e-02f, 1.47274628e-01f, 9.47039872e-02f, -2.28190869e-02f, -1.41533259e-02f, -5.96147478e-02f, -1.28111184e-01f, 1.04228303e-01f, -7.25304037e-02f, -4.92636748e-02f, 1.71383902e-01f, -5.21798134e-01f, 7.12310374e-02f, 9.97841358e-03f, -1.07758418e-01f, -1.52379423e-02f, -3.73155028e-02f, 9.62608233e-02f, 4.99672703e-02f, 4.19932753e-02f, 2.63020468e+00f, -2.00008340e-02f, -8.93461052e-03f, -4.63572191e-03f, 2.80353129e-02f, -2.02159807e-01f, -1.15285784e-01f, -8.15465808e-01f, -5.42434352e-03f, -5.16690016e-02f, 3.60461265e-01f, 1.42871410e-01f, -1.51771590e-01f, -4.95649278e-02f, -8.28417093e-02f, -7.15404749e-04f, 1.01457871e-01f, 1.00236781e-01f, 1.25039220e-02f },
    { 7.69215077e-02f, 1.89502239e-02f, 8.51728171e-02f, -1.19214833e+00f, -2.15283036e-02f, -1.01449996e-01f, 2.88650300e-02f, 5.60698099e-02f, -1.24436617e-03f, 8.80984962e-02f, 7.47721270e-02f, 1.09176517e-01f, 7.73760974e-02f, 1.54053479e-01f, -1.00772515e-01f, 1.49511814e-01f, -1.14209518e-01f, -7.31973350e-03f, 5.79878464e-02f, 3.23745459e-02f, -1.06811687e-01f, -6.42663538e-02f, -7.82146305e-02f, 1.24759376e-01f, 1.04101431e-02f, 1.13600992e-01f, -1.61447674e-02f, -1.70884132e-02f, -4.83718514e-03f, 1.43026203e-01f, 3.33784521e-02f, -7.57081062e-02f, 1.04519472e-01f, 3.82969081e-02f, -1.23810386e-02f, -1.13415495e-01f, 2.48221233e-01f, -1.00117996e-01f, -3.47151756e-02f, -9.20333415e-02f, 2.91679949e-02f, 1.23695418e-01f, -2.36471053e-02f, 5.05052395e-02f, -5.04401773e-02f, -1.17285049e+00f, 5.21787442e-02f, 9.20874940e-04f, 1.45263597e-01f, -1.12801075e-01f, -3.53899505e-03f, 2.02358216e-02f, -8.21292758e-01f, -4.59987111e-02f, -8.52972120e-02f, -2.08878219e-01f, 1.85134786e-03f, 1.14077047e-01f, 1.77827924e-02f, 8.53467286e-02f, 1.15633234e-01f, 3.46883386e-02f, 7.94123299e-03f, 5.99583238e-02f },
    { -2.00524926e-04f, 5.44139594e-02f, -7.68704414e-02f, 4.70211059e-02f, 8.56269002e-02f, 8.07991624e-02f, 2.96550244e-02f, -5.35751432e-02f, 9.11330879e-02f, 1.24444932e-01f, 5.71226627e-02f, -9.85522866e-02f, -1.23526320e-01f, 1.35000050e-02f, 1.32068247e-02f, -7.22443610e-02f, 2.74629295e-02f, 8.37820470e-02f, -9.04676616e-02f, 7.14719296e-02f, 3.18855047e-02f, -1.19341269e-01f, -4.06586677e-02f, -2.53613293e-03f, 7.79119581e-02f, -4.60876226e-02f, 1.36257559e-02f, 7.36257285e-02f, -8.16698372e-02f, -7.49614686e-02f, -5.41033149e-02f, 9.84602571e-02f, -6.94698393e-02f, -2.13935077e-02f, -8.26777518e-03f, 9.55816805e-02f, 1.04604512e-01f, -3.34878415e-02f, 1.19768068e-01f, -8.18418711e-02f, -1.22887015e-01f, -4.08855677e-02f, -2.35267282e-02f, -1.13496363e-01f, -3.39985788e-02f, -8.20953101e-02f, 4.63349819e-02f, 1.64844841e-02f, -1.22645378e-01f, -3.22848558e-02f, -9.84918624e-02f, 2.39548534e-02f, 5.95701039e-02f, -5.07899076e-02f, 3.80563736e-03f, 1.14203334e-01f, -3.54970843e-02f, -9.42264050e-02f, -1.06085777e-01f, 4.60875928e-02f, 6.66379929e-04f, 1.02517456e-02f, -9.87012684e-03f, 1.10875875e-01f },
    { 1.18504271e-01f, -1.19218960e-01f, 2.53949165e-02f, 9.57958847e-02f, -1.00342408e-01f, -9.55172330e-02f, 9.70415771e-02f, -5.36406785e-02f, -6.19532019e-02f, -1.15145564e-01f, 8.05954337e-02f, 3.71924192e-02f, -2.17181742e-02f, -6.81461692e-02f, 5.59504181e-02f, -9.31701362e-02f, -1.02206334e-01f, 1.65030956e-02f, -6.82036579e-02f, 8.18950832e-02f, -8.95877928e-02f, -4.24174368e-02f, -5.50355166e-02f, -8.76787305e-03f, 3.94366682e-02f, 5.36296815e-02f, 4.66025025e-02f, -3.20744663e-02f, 1.19305134e-01f, -1.00510716e-01f, -5.31254560e-02f, 1.00310579e-01f, 2.87883431e-02f, 8.10272992e-02f, 1.16235793e-01f, -6.18045032e-03f, -7.23087490e-02f, 6.11960441e-02f, 8.85501504e-04f, 2.25345492e-02f, 9.69314426e-02f, -2.78389305e-02f, -6.41401112e-02f, 1.05275348e-01f, 2.32236534e-02f, 9.12330449e-02f, -8.46786648e-02f, -5.61107546e-02f, 3.36790979e-02f, -1.07140124e-01f, 6.40045106e-02f, 3.90730649e-02f, -8.50672573e-02f, 7.74850547e-02f, -9.68612731e-03f, -7.38175660e-02f, -1.05627134e-01f, -8.25638473e-02f, -1.20931745e-01f, -5.45221120e-02f, -1.01369426e-01f, 3.06303203e-02f, 7.37192035e-02f, 1.03270009e-01f },
    { 8.06874633e-02f, -6.59888983e-03f, -3.53737026e-02f, 4.97625619e-02f, 5.21956086e-02f, -1.11052975e-01f, 5.53632528e-02f, -5.69854975e-02f, 1.17564887e-01f, 4.87267971e-03f, 9.68158245e-03f, 2.86853313e-03f, -8.15459490e-02f, 9.31128711e-02f, 9.57019627e-03f, -1.22915193e-01f, 8.55809152e-02f, 6.38081133e-02f, 1.09156772e-01f, 2.92569399e-03f, -1.00305974e-01f, 9.63228792e-02f, 7.26560056e-02f, -3.75030339e-02f, -7.49368221e-02f, -5.95849752e-02f, 9.51429904e-02f, 3.85612994e-02f, 1.02342203e-01f, -5.18800616e-02f, 7.58944601e-02f, 9.27258134e-02f, 9.66036320e-03f, -5.36729991e-02f, -7.05320835e-02f, -2.70405412e-02f, 7.77468085e-04f, -6.91007674e-02f, 1.18172467e-02f, 8.76620412e-03f, 8.45627040e-02f, 1.13813430e-01f, -2.16788054e-03f, -7.41255432e-02f, -7.03448057e-02f, -6.91857934e-02f, -3.70701104e-02f, -1.05031163e-01f, 4.88753319e-02f, 6.73757046e-02f, -7.03016818e-02f, 7.70583302e-02f, 1.09644443e-01f, 1.31901205e-02f, -1.45631284e-02f, -5.87096065e-02f, -1.10844329e-01f, -9.38297510e-02f, -1.12455934e-01f, 8.99109244e-02f, 9.52164233e-02f, -1.19324654e-01f, 9.02273804e-02f, -1.06720179e-01f },
    { 1.09924689e-01f, -7.04649389e-02f, -5.66034019e-03f, 1.05121374e-01f, 7.36090839e-02f, -5.19140363e-02f, -9.27600712e-02f, -9.58022177e-02f, 4.92897034e-02f, -3.50338072e-02f, -7.16763735e-03f, -1.09763220e-01f, 1.07055336e-01f, -4.99308109e-04f, -7.79767483e-02f, -2.52845585e-02f, -7.26363212e-02f, 7.04197586e-02f, -2.78795958e-02f, -9.54624414e-02f, -1.20894402e-01f, -4.04772162e-03f, -8.96211118e-02f, 3.82869542e-02f, 1.02743030e-01f, 2.15472281e-02f, 1.79371387e-02f, -3.57373655e-02f, -3.67807895e-02f, -2.25794762e-02f, 9.57131386e-03f, -2.30594575e-02f, 1.15555242e-01f, -6.35161996e-04f, -2.18306035e-02f, 5.15624583e-02f, -1.16972342e-01f, 2.93378383e-02f, -3.82068604e-02f, 1.15425080e-01f, 1.53064728e-03f, -9.07405466e-02f, -1.90442801e-02f, -2.83847302e-02f, -4.07512784e-02f, 1.15091056e-02f, 6.10675365e-02f, 1.86977088e-02f, -3.31028104e-02f, -3.67157161e-02f, -4.71025109e-02f, -2.53052562e-02f, -2.22348273e-02f, 5.98558187e-02f, 1.09709889e-01f, -5.33194840e-03f, -8.33458751e-02f, 8.57080370e-02f, 3.14492732e-02f, 8.85222107e-02f, -8.65137279e-02f, -5.70393652e-02f, -8.43174756e-02f, 9.10024643e-02f },
    { -8.66807178e-02f, -1.01976827e-01f, -2.00845599e-02f, -3.61203790e-01f, 1.83001906e-02f, 1.12848379e-01f, 1.18958978e-02f, -3.44334799e-03f, -1.08544424e-01f, 5.46161532e-02f, 1.20970197e-01f, 2.41745114e-02f, 5.57224452e-03f, 9.80846584e-02f, -8.56980216e-03f, -4.65812534e-02f, 5.29824244e-03f, -1.08108982e-01f, 6.35426715e-02f, 9.51896012e-02f, 4.06824052e-02f, -3.99677455e-03f, -3.49312462e-03f, -2.62954384e-02f, 4.05923091e-02f, -2.51937006e-03f, 1.32624343e-01f, -2.79376060e-02f, 3.60675454e-02f, 1.31791532e-01f, 2.85363793e-02f, -5.59862554e-02f, 1.03293955e-02f, 1.23624653e-02f, -4.68659177e-02f, -8.11247602e-02f, 1.11585982e-01f, 5.62885106e-02f, 5.01442701e-02f, -9.33349133e-04f, 7.85304457e-02f, -7.11735785e-02f, -1.06529899e-01f, 3.75554599e-02f, 4.74468470e-02f, 8.09959292e-01f, 1.11371428e-01f, 5.67184128e-02f, 4.64649796e-02f, -1.07616082e-01f, 2.30637312e-01f, 4.43005711e-02f, 1.02907538e+00f, -1.08993590e-01f, 4.58882451e-02f, 8.85609835e-02f, -1.02510348e-01f, 1.04320543e-02f, -8.82197022e-02f, -7.88830519e-02f, -6.29866421e-02f, 5.85688204e-02f, 6.97497502e-02f, -6.83110952e-03f },
    { 2.37487834e-02f, -4.34702188e-02f, -6.92026317e-03f, 7.91278034e-02f, 1.18699774e-01f, -7.81983137e-02f, 1.41756767e-02f, -4.78342623e-02f, 1.04535371e-01f, 3.76524031e-03f, -1.76971336e-03f, 8.88682082e-02f, 5.40388077e-02f, 5.85195981e-02f, 8.10359865e-02f, -1.32537678e-01f, -4.53665890e-02f, 8.49069506e-02f, -1.17458574e-01f, 5.14799505e-02f, -9.47557837e-02f, 1.20689422e-01f, -1.12566553e-01f, 6.92539290e-02f, 3.12043149e-02f, 5.30801564e-02f, -1.01423249e-01f, -1.30328089e-02f, 8.52370262e-03f, 3.45037691e-02f, -2.46282518e-02f, 3.16920727e-02f, 7.39128888e-03f, 1.05590433e-01f, -5.53461388e-02f, 2.29926333e-02f, -5.83715290e-02f, 8.93280804e-02f, 3.23801786e-02f, 1.16291299e-01f, 2.75110900e-02f, -1.07542306e-01f, 2.19667889e-03f, -2.58249398e-02f, 2.24543363e-02f, -9.39994603e-02f, -8.90728384e-02f, -1.18650250e-01f, 1.00284226e-01f, 4.59250957e-02f, -1.44899338e-01f, 1.60379708e-02f, -2.50069983e-02f, -4.11592750e-03f, 1.13300622e-01f, 6.91406503e-02f, 4.82086241e-02f, 2.79410556e-02f, 4.66284156e-02f, -1.18487775e-02f, -2.12148279e-02f, -4.48045284e-02f, 6.44488484e-02f, -2.46720910e-02f },
    { -8.24284703e-02f, -1.61480904e-03f, -3.22692543e-02f, -1.27418863e-03f, -1.05623052e-01f, 1.12952001e-01f, 8.51111189e-02f, 7.52123445e-02f, 2.36134231e-02f, -1.04738683e-01f, 3.39723155e-02f, -1.17692985e-01f, -4.38911617e-02f, 1.89537574e-02f, 2.49341205e-02f, 1.73879433e-02f, 1.56343647e-03f, 9.14763659e-02f, -5.55082858e-02f, -1.06021643e-01f, -1.04171216e-01f, 1.16825581e-01f, -1.26406357e-01f, 7.75264055e-02f, -5.27874753e-02f, -9.04984996e-02f, 1.46175381e-02f, 9.86633450e-02f, -1.19967595e-01f, -4.22647297e-02f, 3.96839976e-02f, 9.44572687e-02f, 2.00929195e-02f, -6.45789653e-02f, 1.10113539e-01f, -1.08553104e-01f, 7.33948424e-02f, -4.57645208e-02f, -9.81167853e-02f, -5.12877405e-02f, -9.30462480e-02f, -8.97575021e-02f, 2.77628060e-02f, -1.24992952e-01f, 9.16696787e-02f, -1.23884059e-01f, 3.37622836e-02f, -6.85633570e-02f, 5.48560992e-02f, -7.82259256e-02f, 7.32916221e-02f, 6.44903630e-02f, -2.39755865e-02f, -1.20470719e-02f, -6.96315467e-02f, 4.40785214e-02f, -1.15083165e-01f, 5.11849241e-04f, -5.09872139e-02f, -1.16647780e-02f, 6.73023313e-02f, 8.80418569e-02f, -3.25934240e-03f, 7.26985484e-02f },
    { 3.94243049e-03f, -4.97497916e-02f, 1.08462125e-01f, -7.10822642e-03f, 7.32124150e-02f, 6.71926513e-02f, -9.90358591e-02f, 5.21661825e-02f, 1.21958479e-01f, -8.93980265e-03f, -2.72833742e-02f, 1.01791129e-01f, 1.08603328e-01f, -1.11513481e-01f, -3.72588634e-02f, -1.28696099e-01f, -5.60361110e-02f, 5.13973981e-02f, -2.43916009e-02f, -4.12297547e-02f, 6.76291436e-02f, 1.93266273e-02f, 7.25478232e-02f, 5.07567376e-02f, 9.14063081e-02f, -4.85092402e-03f, -1.02744035e-01f, 5.44446707e-03f, 7.31894821e-02f, -1.13814361e-01f, -7.11873472e-02f, -2.59223580e-02f, 9.61118191e-02f, -5.77309728e-03f, 3.95580940e-02f, 2.02965401e-02f, -1.00206964e-01f, -6.72343075e-02f, -1.09539479e-02f, -3.24521512e-02f, 1.10508561e-01f, 1.24487385e-01f, 1.08881190e-01f, -2.27337871e-02f, -3.93620133e-03f, -8.33463576e-03f, -1.20238237e-01f, -9.58108455e-02f, -1.14397309e-03f, -2.21209079e-02f, 8.98098201e-03f, 4.73864377e-03f, -4.74662930e-02f, -5.16289175e-02f, 8.91452730e-02f, -6.50128722e-02f, -8.64799321e-02f, -2.82399952e-02f, 7.04770237e-02f, 3.02687287e-04f, 3.17149162e-02f, -7.06306025e-02f, -1.88822001e-02f, 7.30527490e-02f },
    { -6.37437701e-02f, 3.66388112e-02f, 7.43838400e-02f, 1.02404594e-01f, -1.73125416e-02f, -7.17152804e-02f, -7.02372044e-02f, -9.37130004e-02f, -8.32553953e-02f, -9.81072485e-02f, -7.45564699e-02f, 4.60637361e-02f, -1.14557326e-01f, 7.26407915e-02f, 4.05418873e-02f, -5.50808758e-02f, 9.57530737e-03f, -9.45917368e-02f, -5.78465760e-02f, 2.19197571e-02f, 9.77139324e-02f, 6.86315894e-02f, -3.15557122e-02f, -2.99511403e-02f, 1.90519392e-02f, 2.97752321e-02f, 8.38750452e-02f, -1.10609472e-01f, -2.10426748e-03f, 1.60723478e-02f, -9.79257971e-02f, 4.28050756e-02f, -2.67936438e-02f, 9.55861211e-02f, -2.83053964e-02f, -4.34778184e-02f, -6.51749969e-02f, 5.91299534e-02f, 4.10038829e-02f, -2.11700201e-02f, -1.11285850e-01f, 2.63951123e-02f, 6.84150159e-02f, -3.43817025e-02f, 1.49601251e-02f, -8.56894255e-03f, -3.02374810e-02f, 5.32437861e-03f, -7.23343641e-02f, 9.63328779e-02f, 4.96364385e-02f, 8.37114453e-03f, -9.81673598e-04f, 7.36132264e-03f, 7.16626495e-02f, -5.73185086e-03f, -1.23978838e-01f, -1.02449447e-01f, -1.57493949e-02f, -4.64888662e-02f, -1.13727450e-02f, 3.68529856e-02f, -1.17172122e-01f, -3.73614728e-02f },
    { 4.70475666e-02f, -6.82224333e-03f, 7.50006735e-03f, -1.01269871e-01f, -2.61412859e-02f, 2.05199681e-02f, -6.88332543e-02f, 1.12539101e-02f, -3.12280655e-02f, 1.73184276e-02f, -8.98926035e-02f, -1.16715766e-02f, 1.18979022e-01f, -1.24186911e-01f, -6.87443540e-02f, 5.07832319e-02f, 1.56117128e-02f, -1.18575215e-01f, -1.06856182e-01f, -7.45518655e-02f, 2.62227952e-02f, -4.78867441e-02f, -5.39003797e-02f, -1.26021460e-01f, 8.31167921e-02f, -1.04691489e-02f, 9.46841612e-02f, -1.22915864e-01f, -1.11827865e-01f, 3.43217887e-02f, 3.82663459e-02f, -6.06890507e-02f, -7.73523748e-02f, 2.93816626e-02f, -3.31437923e-02f, 3.85898948e-02f, -9.47197080e-02f, -7.36075044e-02f, -5.10066599e-02f, -3.13347727e-02f, -2.94208080e-02f, -2.22355872e-02f, 1.04364865e-01f, -8.91110227e-02f, -4.68805283e-02f, 7.21986219e-02f, -2.53895707e-02f, -3.20468023e-02f, -1.20575435e-01f, 4.36889231e-02f, 6.69862255e-02f, -6.05685264e-02f, 5.48673049e-02f, 1.21301562e-02f, 1.08891636e-01f, 5.06040044e-02f, -1.07400320e-01f, -1.32700637e-01f, -8.09180588e-02f, 1.09282911e-01f, 7.25593120e-02f, 6.36491403e-02f, -1.54459970e-02f, -1.27475411e-02f },
    { -6.65922463e-03f, 7.27586746e-02f, 9.83231664e-02f, -4.40952182e-02f, 1.21496677e-01f, 1.79363340e-02f, -1.08227298e-01f, 1.86610967e-02f, -5.62300682e-02f, -1.02177143e-01f, -1.20022833e-01f, 1.15973353e-02f, 3.88817191e-02f, -4.43449169e-02f, 7.48580247e-02f, -5.90463430e-02f, -9.88505334e-02f, 7.68093318e-02f, 4.86584753e-02f, -1.08953238e-01f, 1.23574540e-01f, -1.16719797e-01f, 4.95867878e-02f, -1.18832305e-01f, -4.03354615e-02f, 3.32580507e-02f, 1.09425053e-01f, 5.67085445e-02f, 7.79906809e-02f, 1.01828679e-01f, -5.12334555e-02f, -6.21020943e-02f, 1.77684426e-03f, 5.37851453e-03f, -1.01951137e-01f, -2.12009400e-02f, 6.34482354e-02f, -1.02694333e-01f, -6.44191951e-02f, 7.67274201e-02f, -7.80112147e-02f, 1.10951364e-02f, -7.19911605e-02f, -1.00938827e-01f, 2.76337564e-03f, -7.54342824e-02f, -5.92001379e-02f, -7.80315399e-02f, 7.49303252e-02f, 1.08963937e-01f, -2.14022547e-02f, -5.56118488e-02f, 1.22192651e-02f, 9.05906558e-02f, 1.17939949e-01f, 1.96548104e-02f, -1.88645422e-02f, 6.02590740e-02f, -1.08228341e-01f, -3.79773527e-02f, -3.19011360e-02f, 3.50561142e-02f, -4.47348803e-02f, -2.50039995e-02f },
    { 1.26431182e-01f, -7.88759887e-02f, 9.12872255e-02f, 7.43328035e-01f, -7.61798024e-02f, 4.90899198e-02f, -6.72763661e-02f, -4.42857333e-02f, 8.39287043e-03f, -4.40058708e-02f, -3.95743027e-02f, 8.99790004e-02f, 2.44233608e-02f, -7.38855973e-02f, 5.28726242e-02f, 7.22512305e-02f, 6.62337393e-02f, 9.56642479e-02f, 7.59415329e-02f, 1.17196217e-01f, -5.10887653e-02f, 1.11389607e-01f, 9.93908197e-02f, 6.97495639e-02f, 1.09548122e-01f, 1.13936737e-01f, 4.12580073e-02f, 1.05005607e-01f, 5.67852706e-02f, 8.12223926e-02f, 6.64160699e-02f, 2.01023668e-02f, 9.54216421e-02f, -4.57057804e-02f, 1.06947139e-01f, 9.01240334e-02f, -1.44353852e-01f, 1.80768371e-02f, -8.23497325e-02f, 3.85579318e-02f, 5.80408871e-02f, -1.03060573e-01f, 4.98428047e-02f, -3.18697654e-02f, 1.10955253e-01f, 1.01338792e+00f, 5.93389198e-02f, 1.17847838e-01f, 8.85900110e-03f, -1.21565238e-01f, -1.07456937e-01f, 1.04578733e-01f, 7.55120695e-01f, 1.21392973e-01f, 5.34989536e-02f, 1.22777849e-01f, -1.08463310e-01f, 1.04348719e-01f, -9.71892178e-02f, -2.71493345e-02f, -5.71665913e-02f, 2.10213987e-03f, 7.57763460e-02f, -5.70469052e-02f },
    { 8.07460845e-02f, -3.68476063e-02f, 7.25245923e-02f, 4.41203862e-01f, 6.87644929e-02f, -9.53458101e-02f, 8.32045004e-02f, 9.79851037e-02f, -9.96364802e-02f, 4.00134921e-02f, 4.11951654e-02f, -9.65258926e-02f, -4.61598337e-02f, -1.58234388e-01f, -1.65651143e-02f, 1.98374931e-02f, 1.02006711e-01f, 6.26576245e-02f, -1.35323107e-01f, -1.14178032e-01f, -5.82321435e-02f, -8.74750316e-03f, 1.34505868e-01f, -4.15620841e-02f, 3.03233359e-02f, 4.64434922e-03f, 4.75278273e-02f, 2.17017978e-02f, 7.02906102e-02f, 1.01651408e-01f, 9.51813161e-03f, 2.82905754e-02f, 1.12706423e-02f, 5.42230904e-02f, 1.44828916e-01f, -2.80039459e-02f, -2.44607076e-01f, 3.84919792e-02f, 5.19923121e-02f, 1.15320981e-01f, 7.60194957e-02f, -2.93619782e-02f, 7.30599761e-02f, -8.03214908e-02f, -6.82510436e-03f, 1.02319515e+00f, 9.99977365e-02f, -7.33175129e-02f, -2.66414862e-02f, -1.16025746e-01f, 6.26831353e-02f, -5.55597097e-02f, -4.48491901e-01f, -8.11166465e-02f, -1.02333486e-01f, 2.18529880e-01f, 4.23364490e-02f, -1.24440953e-01f, 2.21661478e-02f, -8.60229582e-02f, 8.32097381e-02f, 1.06748782e-01f, 1.65801227e-01f, 1.08700290e-01f },
    { -5.20004854e-02f, 5.71542382e-02f, -9.95355844e-02f, 1.14423081e-01f, 2.78840065e-02f, 1.07576638e-01f, 1.75584899e-03f, 1.39565123e-02f, 7.05465674e-03f, 6.13070726e-02f, 8.20415318e-02f, -4.55241092e-02f, -8.01141262e-02f, 8.63142312e-02f, -1.05397709e-01f, -1.16026923e-01f, -4.87065911e-02f, -9.71736312e-02f, 9.63318944e-02f, -1.21336564e-01f, -6.81913644e-02f, -9.21519101e-02f, -5.83517589e-02f, -5.19544929e-02f, 3.42613342e-03f, 2.87484545e-02f, 6.97573647e-02f, -7.52817988e-02f, -5.45918792e-02f, -8.68929848e-02f, -2.91306674e-02f, -8.38239938e-02f, -1.90588385e-02f, -4.68906909e-02f, 6.91784844e-02f, 5.82715534e-02f, 6.24626242e-02f, 9.80454385e-02f, -2.26308703e-02f, 1.85658634e-02f, -3.18077356e-02f, 9.80760157e-02f, -8.28168243e-02f, -1.80658128e-03f, 5.48017919e-02f, -3.34206708e-02f, 5.18518442e-04f, -1.00469515e-02f, 1.23354821e-02f, 5.60463965e-03f, 1.06137604e-01f, -4.74347025e-02f, -1.51849598e-01f, -6.02445304e-02f, -6.97483569e-02f, -1.27987996e-01f, -2.07130164e-02f, -3.68574448e-02f, -7.37080872e-02f, -7.61015713e-03f, 3.59831899e-02f, -4.88029420e-02f, -4.80754126e-04f, -4.18747663e-02f },
    { -1.99367255e-02f, 9.15293097e-02f, 9.05099660e-02f, -4.29947227e-02f, 8.24009627e-02f, -1.44364089e-02f, 9.57482755e-02f, -1.11201718e-01f, -1.04007572e-02f, -1.11159489e-01f, 5.39006144e-02f, -1.23486221e-02f, 8.78116637e-02f, 6.15343004e-02f, -3.96555513e-02f, -1.33141577e-02f, 9.76495892e-02f, 2.38404721e-02f, -5.38539141e-02f, -6.59114718e-02f, 1.13258362e-02f, -1.21241912e-01f, -9.30274129e-02f, 6.85899258e-02f, -1.16346523e-01f, 4.38665599e-02f, -3.39653492e-02f, 5.69585562e-02f, 1.04355901e-01f, -6.42661303e-02f, -8.82683545e-02f, -8.70278031e-02f, 1.04092389e-01f, -8.15575272e-02f, 7.76204467e-02f, 4.19585854e-02f, 6.86837137e-02f, -2.61250883e-02f, 6.44715428e-02f, 6.74847215e-02f, 1.34314001e-02f, -2.94099301e-02f, 3.55722159e-02f, 1.06472522e-02f, -2.55483985e-02f, 1.10598490e-01f, 3.52729261e-02f, -6.37487173e-02f, 6.53426349e-03f, -9.24798846e-03f, -9.59718078e-02f, 7.21644312e-02f, -1.11100465e-01f, 4.65460122e-02f, 1.60940289e-02f, -1.11142546e-01f, -9.02109444e-02f, -3.43112946e-02f, 8.99497718e-02f, -4.33564484e-02f, -1.18068129e-01f, 6.33013994e-02f, -4.61019576e-02f, 9.20535177e-02f },
    { -1.47320598e-01f, -8.46248120e-02f, -1.12103075e-02f, -1.16631675e+00f, 5.66001683e-02f, -8.95722583e-02f, -7.36919791e-02f, -2.71533169e-02f, -3.99542600e-02f, 4.54118401e-02f, -5.62839545e-02f, 1.39728695e-01f, 8.64781141e-02f, 2.62583047e-01f, 8.12920034e-02f, 1.00585096e-01f, 9.09927413e-02f, -1.16594777e-01f, 3.54283005e-02f, -9.02482718e-02f, 7.76258409e-02f, -6.13904893e-02f, 4.53467406e-02f, -1.19917288e-01f, 9.95822251e-02f, 8.16237032e-02f, -7.89624359e-03f, 1.23809204e-01f, 5.17484695e-02f, 2.79927015e-01f, 7.06259459e-02f, 2.86365926e-01f, -3.63085866e-02f, -4.58310395e-02f, -1.27437279e-01f, -1.54577941e-02f, 2.90362000e-01f, -6.48631603e-02f, -4.52741981e-03f, -1.08237207e-01f, -1.11912906e-01f, -1.45961940e-02f, -1.43771097e-01f, 4.06626686e-02f, 1.02862641e-01f, -1.98035526e+00f, -1.50068805e-01f, -1.22250229e-01f, 2.67099053e-01f, 7.68240988e-02f, 8.46491337e-01f, -5.44912964e-02f, 5.12016237e-01f, 1.04390837e-01f, -1.01898625e-01f, -1.35504112e-01f, -1.27690151e-01f, 1.16902716e-01f, -6.79665804e-03f, -3.86581272e-02f, -3.89233381e-02f, -1.81957826e-01f, 4.00374979e-02f, -1.52599365e-02f },
    { 3.07780523e-02f, -3.86190265e-02f, -6.95369989e-02f, 5.37514538e-02f, -1.43213719e-02f, 4.96412553e-02f, 1.05179451e-01f, -1.99010856e-02f, -1.69085115e-02f, 1.06568709e-01f, -8.56815726e-02f, 2.87634730e-02f, 1.10776424e-01f, -1.19662568e-01f, 2.71542165e-02f, -8.94298628e-02f, 3.70902717e-02f, -9.01162177e-02f, -5.09414226e-02f, 7.91378319e-02f, 9.28991884e-02f, -4.49520648e-02f, -6.81597218e-02f, -3.78776714e-02f, 3.56438681e-02f, 9.56860483e-02f, -4.78643999e-02f, -8.59009326e-02f, -1.19298697e-02f, -5.77090792e-02f, -2.03742087e-03f, -8.26723725e-02f, -5.80534339e-04f, 7.13110119e-02f, 1.13825515e-01f, 9.41767916e-02f, -5.78117855e-02f, -7.52106160e-02f, -9.08816904e-02f, -4.86590564e-02f, 1.05047524e-01f, 2.46975869e-02f, -5.88759966e-02f, -1.26220599e-01f, 7.43290037e-02f, -1.13055751e-01f, -2.39344910e-02f, 1.00053750e-01f, -1.11441225e-01f, -2.22064555e-02f, -7.26883337e-02f, -1.02509424e-01f, -6.64725900e-04f, -7.74893612e-02f, -5.11685163e-02f, 1.00102231e-01f, -8.01897515e-03f, 7.33645037e-02f, -8.11664313e-02f, 7.73358345e-02f, 3.47452760e-02f, 4.23625894e-02f, 2.29730327e-02f, 7.71717578e-02f },
    { 8.74902979e-02f, -1.10484064e-02f, -4.29402143e-02f, 1.03942001e+00f, -7.85310566e-02f, 9.23981890e-02f, -8.19354579e-02f, -2.54132114e-02f, 3.01495194e-04f, 5.96151054e-02f, 1.08318672e-01f, -1.26143983e-02f, -6.11912757e-02f, -5.78031056e-02f, -1.19261093e-01f, -1.25291854e-01f, 2.41499878e-02f, 1.23465583e-01f, 6.16313554e-02f, 1.43503547e-02f, -7.06060529e-02f, -2.99696028e-02f, 1.15054548e-02f, 9.32173505e-02f, -9.71524492e-02f, -1.76590513e-02f, -3.67773101e-02f, -1.58604532e-02f, 4.36298549e-02f, 3.70452702e-02f, -3.08655798e-02f, -5.99682741e-02f, -3.94855142e-02f, 1.83253586e-02f, -1.06885754e-01f, 1.42121792e-01f, -9.57907736e-02f, -6.78153485e-02f, -1.17753968e-01f, -1.12434417e-01f, 2.20756829e-02f, -3.67829651e-02f, 1.14730082e-01f, 2.86811311e-02f, -5.56556284e-02f, 1.63961601e+00f, 6.45472407e-02f, 6.52441084e-02f, -5.50269373e-02f, -9.98943895e-02f, -1.19981542e-01f, 1.22626841e-01f, 5.18426418e-01f, -7.23638460e-02f, 6.30472600e-02f, 1.94204390e-01f, 5.91529422e-02f, -2.78895441e-03f, 9.07455832e-02f, 8.08276534e-02f, 5.82753867e-02f, 1.26172632e-01f, -6.21696189e-02f, 6.93120211e-02f },
    { 8.28583241e-02f, 1.12720013e-01f, 3.80241275e-02f, 6.85921162e-02f, -3.53210419e-02f, 4.91335988e-03f, -9.25597996e-02f, 1.24282807e-01f, -6.44625425e-02f, 1.02329955e-01f, -1.21728107e-01f, 7.44956881e-02f, 1.75197273e-02f, -7.78448731e-02f, 1.22768283e-02f, -4.37981188e-02f, 2.07747966e-02f, -7.43587762e-02f, 3.24345082e-02f, 7.02427477e-02f, 9.93105322e-02f, 4.48659509e-02f, 2.42555737e-02f, -9.53634083e-03f, -1.29837096e-02f, -9.17013437e-02f, 3.03685069e-02f, -1.22057483e-01f, 1.24503076e-01f, -5.09302020e-02f, -7.93358088e-02f, 6.96464181e-02f, 1.22328818e-01f, 6.09076023e-02f, 6.08805269e-02f, -5.89935184e-02f, -7.51471668e-02f, -6.77190274e-02f, -2.94755995e-02f, -7.90129900e-02f, 9.90558863e-02f, 6.66067898e-02f, 9.79396254e-02f, -5.20429462e-02f, 4.06862497e-02f, 9.33624804e-03f, 3.37391347e-02f, -9.08889472e-02f, 7.97149837e-02f, 8.14933032e-02f, -7.19631314e-02f, 9.10789222e-02f, 2.96113044e-02f, -1.09299928e-01f, 6.11403584e-02f, 1.18310079e-01f, -9.78006124e-02f, -9.40248519e-02f, 1.03020340e-01f, -5.86466640e-02f, -1.06369436e-01f, 7.06260800e-02f, 9.96087492e-02f, 8.60148817e-02f },
};

// fc2.bias shape=(32,)
static const float fc2_bias[32] = { 6.97355866e-02f, -9.40153599e-02f, 5.79502657e-02f, -6.82659596e-02f, 1.00563124e-01f, 5.32561541e-03f, -1.26875788e-01f, -8.28189701e-02f, 6.13398999e-02f, -6.70454279e-02f, -7.09486604e-02f, -6.15070686e-02f, -3.46419923e-02f, 4.60649133e-02f, 1.02096155e-01f, 7.95567036e-03f, -7.60417879e-02f, 1.34997830e-01f, 6.87358975e-02f, -8.61807764e-02f, 8.96097496e-02f, 3.40666175e-02f, 7.19254762e-02f, -1.10249668e-02f, 8.69949386e-02f, -1.89732027e-03f, 4.64295559e-02f, 7.32655376e-02f, 9.57089961e-02f, 1.12553626e-01f, -1.06401093e-01f, -9.95011628e-02f };

// fc3.weight shape=(5,32)
static const float fc3_weight[5][32] = {
    { 1.23077676e-01f, -1.20724060e-01f, 5.71048968e-02f, 1.14628240e-01f, -1.73706949e-01f, -1.76908672e-02f, -2.06354633e-01f, -7.40162730e-02f, 9.39892679e-02f, 4.05006818e-02f, 2.16509685e-01f, -1.09629758e-01f, 1.07739560e-01f, -1.69465423e-01f, -4.52645272e-02f, 1.01030394e-01f, 3.80971730e-02f, -5.99145964e-02f, 3.54368091e-02f, -1.69591755e-01f, -1.34149432e-01f, -5.52918836e-02f, -8.84217024e-02f, 1.21101812e-01f, -5.93036450e-02f, -1.39963448e-01f, -3.73535864e-02f, -2.82505304e-02f, 1.30515492e+00f, 1.57511920e-01f, -1.46693408e-01f, -1.37302160e-01f },
    { -9.61222053e-02f, -5.16345650e-02f, -1.32172003e-01f, 7.57226199e-02f, 1.67492256e-01f, 3.64843905e-02f, -3.70359309e-02f, 1.07805535e-01f, 1.84413493e-02f, -1.03735365e-01f, -4.91969399e-02f, -7.87302852e-01f, 2.66078830e-01f, 3.44037563e-02f, 1.22259155e-01f, -7.88095444e-02f, 6.75710738e-02f, 1.33332729e-01f, -1.42233074e-01f, -1.57870308e-01f, -9.14836377e-02f, -6.67246953e-02f, -6.56124577e-03f, 1.64307788e-01f, -1.81716110e-04f, -4.15357649e-02f, -6.68305457e-02f, 7.21210241e-03f, 2.86578596e-01f, -5.43462532e-03f, -1.08936682e-01f, -1.60119012e-01f },
    { 1.28766194e-01f, -9.52952653e-02f, 9.43954801e-04f, -1.49283856e-02f, -7.07916766e-02f, -8.49226937e-02f, -1.38994500e-01f, -9.78343785e-02f, 1.47153094e-01f, 1.36738330e-01f, -1.15246400e-01f, -1.51584083e-02f, -5.39340042e-02f, -4.18186933e-02f, -3.86649668e-02f, -7.95259774e-02f, 1.40529826e-01f, 2.04795361e-01f, 3.83880809e-02f, 2.39262022e-02f, -4.45335470e-02f, 1.83743238e-02f, 8.57519209e-02f, 3.66253555e-02f, 1.07338123e-01f, 1.98760957e-01f, 9.85448584e-02f, -1.44557625e-01f, 1.09486189e-02f, 1.68575898e-01f, -1.38588939e-02f, 4.90258038e-02f },
    { -1.18800849e-02f, -1.17318004e-01f, -3.39775793e-02f, -3.10679227e-02f, 5.77006638e-02f, 1.14016399e-01f, 2.40330443e-01f, -1.21505424e-01f, 1.55928299e-01f, 1.28212273e-01f, -7.81327859e-02f, 1.32321268e-01f, -2.07772642e-01f, 1.24338493e-01f, 6.02785051e-02f, 1.28351465e-01f, -6.10882118e-02f, 8.27284455e-02f, 7.75011480e-02f, -1.50031507e-01f, -4.93218489e-02f, -5.53555414e-02f, 1.19601957e-01f, -5.28607219e-02f, 1.62657589e-01f, 2.83135884e-02f, -1.17927767e-01f, 9.45906490e-02f, -7.53545046e-01f, -1.16047315e-01f, 1.88017502e-01f, 2.87125856e-02f },
    { -1.44933656e-01f, 1.81327313e-02f, 1.44748673e-01f, -1.61825418e-01f, 1.58176795e-01f, 6.31585419e-02f, 2.89152890e-01f, 1.54409036e-01f, -1.64448261e-01f, 5.12240306e-02f, -2.27392837e-01f, 5.29823840e-01f, -1.21512331e-01f, -1.95794255e-02f, 2.21769959e-02f, 1.72655568e-01f, -1.06747471e-01f, -1.35392100e-01f, 1.96632184e-02f, 4.37839478e-02f, -2.17356682e-02f, 1.15025744e-01f, -1.16795532e-01f, 5.07765263e-02f, 1.99663956e-02f, 2.56099373e-01f, 1.13802589e-01f, 3.06188613e-02f, -1.64540005e+00f, 4.27373014e-02f, 1.90771550e-01f, 2.42224336e-03f },
};

// fc3.bias shape=(5,)
static const float fc3_bias[5] = { -1.03108741e-01f, 2.08323866e-01f, -3.52326711e-03f, -1.69347256e-01f, -2.00204268e-01f };

#endif // FC_WEIGHTS_H
